svm_type c_svc
kernel_type linear
nr_class 5
total_sv 101
rho -1 -1 -1 1 -1 -1 1 -1 1 1
label 1 2 3 4 0
nr_sv 35 19 11 1 35
SV
0 0 0 1 
0 0 0 1 
0 0 0 1 
0 0 0 1 
0 0 0 1 
0 0 0 1 
0 0 0 1 
0 0 0 1 
0 0 0 1 
0 0 0 1 
0 0 0 1 
0 0 0 1 
0 0 0 1 
0 0 0 1 
0 0 0 1 
0 0 0 1 
1 0 0 1 
1 0 0 1 
1 0 0 1 
1 0 0 1 
1 0 0 1 
1 0 0 1 
1 0 0 1 
1 0 0 1 
1 1 0 1 
1 1 0 1 
1 1 0 1 
1 1 0 1 
1 1 0 1 
1 1 0 1 
1 1 0 1 
1 1 0 1 
1 1 0 1 
1 1 0 1 
1 1 1 1 
-1 0 0 1 
-1 0 0 1 
-1 0 0 1 
-1 0 0 1 
-1 0 0 1 
-1 0 0 1 
-1 0 0 1 
-1 0 0 1 
-1 1 0 1 
-1 1 0 1 
-1 1 0 1 
-1 1 0 1 
-1 1 0 1 
-1 1 0 1 
-1 1 0 1 
-1 1 0 1 
-1 1 0 1 
-1 1 0 1 
-1 1 1 1 
-1 -1 0 1 
-1 -1 0 1 
-1 -1 0 1 
-1 -1 0 1 
-1 -1 0 1 
-1 -1 0 1 
-1 -1 0 1 
-1 -1 0 1 
-1 -1 0 1 
-1 -1 0 1 
-1 -1 1 1 
-1 -1 -1 1 
-1 -0 -0 -0 
-1 -0 -0 -0 
-1 -0 -0 -0 
-1 -0 -0 -0 
-1 -0 -0 -0 
-1 -0 -0 -0 
-1 -0 -0 -0 
-1 -0 -0 -0 
-1 -0 -0 -0 
-1 -0 -0 -0 
-1 -0 -0 -0 
-1 -0 -0 -0 
-1 -0 -0 -0 
-1 -0 -0 -0 
-1 -0 -0 -0 
-1 -0 -0 -0 
-1 -1 -0 -0 
-1 -1 -0 -0 
-1 -1 -0 -0 
-1 -1 -0 -0 
-1 -1 -0 -0 
-1 -1 -0 -0 
-1 -1 -0 -0 
-1 -1 -0 -0 
-1 -1 -1 -0 
-1 -1 -1 -0 
-1 -1 -1 -0 
-1 -1 -1 -0 
-1 -1 -1 -0 
-1 -1 -1 -0 
-1 -1 -1 -0 
-1 -1 -1 -0 
-1 -1 -1 -0 
-1 -1 -1 -0 
-1 -1 -1 -1 
